digraph Tree {
node [shape=box, fontname="helvetica"] ;
edge [fontname="helvetica"] ;
0 [label="x[10] <= 26.5\nentropy = 1.72\nsamples = 1199\nvalue = [8, 39, 512, 468, 159, 13]"] ;
1 [label="x[9] <= 15.5\nentropy = 1.393\nsamples = 744\nvalue = [5, 24, 435, 248, 31, 1]"] ;
0 -> 1 [labeldistance=2.5, labelangle=45, headlabel="True"] ;
2 [label="x[3] <= 1.5\nentropy = 1.065\nsamples = 180\nvalue = [2, 12, 139, 26, 1, 0]"] ;
1 -> 2 ;
3 [label="x[7] <= 103.0\nentropy = 1.0\nsamples = 2\nvalue = [1, 0, 0, 0, 1, 0]"] ;
2 -> 3 ;
4 [label="entropy = 0.0\nsamples = 1\nvalue = [0, 0, 0, 0, 1, 0]"] ;
3 -> 4 ;
5 [label="entropy = 0.0\nsamples = 1\nvalue = [1, 0, 0, 0, 0, 0]"] ;
3 -> 5 ;
6 [label="x[1] <= 110.5\nentropy = 0.988\nsamples = 178\nvalue = [1, 12, 139, 26, 0, 0]"] ;
2 -> 6 ;
7 [label="entropy = 0.92\nsamples = 165\nvalue = [0, 9, 130, 26, 0, 0]"] ;
6 -> 7 ;
8 [label="entropy = 1.14\nsamples = 13\nvalue = [1, 3, 9, 0, 0, 0]"] ;
6 -> 8 ;
9 [label="x[6] <= 76.5\nentropy = 1.417\nsamples = 564\nvalue = [3, 12, 296, 222, 30, 1]"] ;
1 -> 9 ;
10 [label="x[1] <= 24.0\nentropy = 1.482\nsamples = 447\nvalue = [3, 10, 202, 202, 29, 1]"] ;
9 -> 10 ;
11 [label="entropy = 1.467\nsamples = 70\nvalue = [0, 1, 13, 44, 11, 1]"] ;
10 -> 11 ;
12 [label="entropy = 1.419\nsamples = 377\nvalue = [3, 9, 189, 158, 18, 0]"] ;
10 -> 12 ;
13 [label="x[2] <= 43.5\nentropy = 0.848\nsamples = 117\nvalue = [0, 2, 94, 20, 1, 0]"] ;
9 -> 13 ;
14 [label="entropy = 0.818\nsamples = 96\nvalue = [0, 1, 75, 20, 0, 0]"] ;
13 -> 14 ;
15 [label="entropy = 0.549\nsamples = 21\nvalue = [0, 1, 19, 0, 1, 0]"] ;
13 -> 15 ;
16 [label="x[9] <= 23.5\nentropy = 1.804\nsamples = 455\nvalue = [3, 15, 77, 220, 128, 12]"] ;
0 -> 16 [labeldistance=2.5, labelangle=-45, headlabel="False"] ;
17 [label="x[1] <= 128.0\nentropy = 1.767\nsamples = 169\nvalue = [3, 12, 49, 84, 21, 0]"] ;
16 -> 17 ;
18 [label="x[3] <= 40.5\nentropy = 1.608\nsamples = 160\nvalue = [0, 8, 47, 84, 21, 0]"] ;
17 -> 18 ;
19 [label="entropy = 1.409\nsamples = 136\nvalue = [0, 3, 42, 79, 12, 0]"] ;
18 -> 19 ;
20 [label="entropy = 1.945\nsamples = 24\nvalue = [0, 5, 5, 5, 9, 0]"] ;
18 -> 20 ;
21 [label="x[3] <= 10.0\nentropy = 1.53\nsamples = 9\nvalue = [3, 4, 2, 0, 0, 0]"] ;
17 -> 21 ;
22 [label="entropy = 0.0\nsamples = 2\nvalue = [0, 0, 2, 0, 0, 0]"] ;
21 -> 22 ;
23 [label="entropy = 0.985\nsamples = 7\nvalue = [3, 4, 0, 0, 0, 0]"] ;
21 -> 23 ;
24 [label="x[1] <= 32.5\nentropy = 1.63\nsamples = 286\nvalue = [0, 3, 28, 136, 107, 12]"] ;
16 -> 24 ;
25 [label="x[6] <= 43.5\nentropy = 1.531\nsamples = 151\nvalue = [0, 0, 10, 56, 76, 9]"] ;
24 -> 25 ;
26 [label="entropy = 1.358\nsamples = 122\nvalue = [0, 0, 3, 42, 70, 7]"] ;
25 -> 26 ;
27 [label="entropy = 1.739\nsamples = 29\nvalue = [0, 0, 7, 14, 6, 2]"] ;
25 -> 27 ;
28 [label="x[10] <= 40.5\nentropy = 1.566\nsamples = 135\nvalue = [0, 3, 18, 80, 31, 3]"] ;
24 -> 28 ;
29 [label="entropy = 1.394\nsamples = 87\nvalue = [0, 3, 16, 57, 11, 0]"] ;
28 -> 29 ;
30 [label="entropy = 1.476\nsamples = 48\nvalue = [0, 0, 2, 23, 20, 3]"] ;
28 -> 30 ;
}